digraph Tree {
node [shape=box] ;
0 [label="X[0] <= 0.839\ngini = 0.5\nsamples = 385\nvalue = [192, 193]"] ;
1 [label="X[2] <= -1.965\ngini = 0.037\nsamples = 161\nvalue = [158, 3]"] ;
0 -> 1 [labeldistance=2.5, labelangle=45, headlabel="True"] ;
2 [label="gini = 0.0\nsamples = 3\nvalue = [0, 3]"] ;
1 -> 2 ;
3 [label="gini = 0.0\nsamples = 158\nvalue = [158, 0]"] ;
1 -> 3 ;
4 [label="X[1] <= 1.899\ngini = 0.257\nsamples = 224\nvalue = [34, 190]"] ;
0 -> 4 [labeldistance=2.5, labelangle=-45, headlabel="False"] ;
5 [label="X[23] <= 0.492\ngini = 0.069\nsamples = 197\nvalue = [7, 190]"] ;
4 -> 5 ;
6 [label="X[17] <= -0.627\ngini = 0.031\nsamples = 193\nvalue = [3, 190]"] ;
5 -> 6 ;
7 [label="gini = 0.0\nsamples = 1\nvalue = [1, 0]"] ;
6 -> 7 ;
8 [label="X[2] <= 2.261\ngini = 0.021\nsamples = 192\nvalue = [2, 190]"] ;
6 -> 8 ;
9 [label="X[27] <= 0.816\ngini = 0.01\nsamples = 191\nvalue = [1, 190]"] ;
8 -> 9 ;
10 [label="gini = 0.0\nsamples = 190\nvalue = [0, 190]"] ;
9 -> 10 ;
11 [label="gini = 0.0\nsamples = 1\nvalue = [1, 0]"] ;
9 -> 11 ;
12 [label="gini = 0.0\nsamples = 1\nvalue = [1, 0]"] ;
8 -> 12 ;
13 [label="gini = 0.0\nsamples = 4\nvalue = [4, 0]"] ;
5 -> 13 ;
14 [label="gini = 0.0\nsamples = 27\nvalue = [27, 0]"] ;
4 -> 14 ;
}